{
  "scaler": {
    "mean": [
      39.05375,
      0.189375,
      0.14875,
      0.38625,
      0.47875,
      0.3175,
      0.436875
    ],
    "scale": [
      22.92786756193214,
      0.3918062140586849,
      0.3558418714822639,
      0.4868890402340148,
      0.4995482334069455,
      0.46550375938331584,
      0.49599922820000436
    ],
    "features": [
      "Age",
      "RecentTravel",
      "PreviousHistory",
      "Fever",
      "Headache",
      "AbdominalPain",
      "Weakness"
    ]
  },
  "layers": [
    {
      "name": "dense",
      "weights": [
        [
          0.06833713501691818,
          0.32068660855293274,
          -0.04631362110376358,
          0.13170059025287628,
          0.028675653040409088,
          -0.13777613639831543,
          -0.20375369489192963,
          -0.2969290316104889,
          0.032227396965026855,
          0.18337015807628632,
          0.11816364526748657,
          0.38450267910957336,
          0.20418450236320496,
          0.217270627617836,
          -0.06048237532377243,
          0.12289551645517349,
          -0.3359306752681732,
          0.3148804008960724,
          0.047210693359375,
          0.13545525074005127,
          0.13089106976985931,
          0.1674385815858841,
          0.04461466148495674,
          0.2839493751525879,
          -0.23564860224723816,
          0.28007861971855164,
          -0.33858320116996765,
          0.35036495327949524,
          0.23830369114875793,
          -0.04702726751565933,
          -0.31420469284057617,
          0.376758873462677
        ],
        [
          -0.23308631777763367,
          -0.13025613129138947,
          -0.10540670156478882,
          -0.23812459409236908,
          -0.20736776292324066,
          -0.4573987126350403,
          -0.1417555958032608,
          -0.2422601878643036,
          -0.16599449515342712,
          0.22706985473632812,
          0.07962038367986679,
          0.4909786283969879,
          -0.24186217784881592,
          0.18958383798599243,
          -0.11850503832101822,
          -0.32533910870552063,
          0.23789159953594208,
          0.01246802881360054,
          -0.3990911841392517,
          0.41704684495925903,
          0.28061091899871826,
          -0.3011155128479004,
          0.02409493364393711,
          -0.3800753057003021,
          0.2289525717496872,
          -0.4572058618068695,
          -0.15239816904067993,
          -0.0004692533693742007,
          -0.24885091185569763,
          0.24768538773059845,
          -0.05314626544713974,
          -0.18693643808364868
        ],
        [
          0.03368229418992996,
          0.032698437571525574,
          -0.3376275897026062,
          -0.3596668243408203,
          0.3282437026500702,
          0.2150067389011383,
          -0.18559281527996063,
          -0.22531983256340027,
          -0.18758022785186768,
          0.03516542166471481,
          -0.029718153178691864,
          0.16913093626499176,
          -0.11634485423564911,
          -0.04657117277383804,
          0.0731184259057045,
          -0.4322623014450073,
          0.20640675723552704,
          -0.32108402252197266,
          -0.10413447767496109,
          0.2805045545101166,
          0.13211622834205627,
          -0.24021992087364197,
          -0.36083313822746277,
          0.1175280511379242,
          -0.26896974444389343,
          0.22407108545303345,
          0.35877886414527893,
          0.0031346562318503857,
          0.1605362892150879,
          -0.04344799369573593,
          0.13150444626808167,
          0.34431779384613037
        ],
        [
          0.02354768104851246,
          -0.02074800804257393,
          0.3031429052352905,
          0.2974318563938141,
          -0.33124464750289917,
          -0.24683409929275513,
          -0.24423596262931824,
          -0.24728526175022125,
          -0.008571621961891651,
          0.24286408722400665,
          -0.18348921835422516,
          0.44224879145622253,
          -0.40582770109176636,
          0.27020010352134705,
          -0.1925836056470871,
          -0.4074264168739319,
          0.15770064294338226,
          -0.3015270233154297,
          -0.47930413484573364,
          0.1040739044547081,
          -0.4930749535560608,
          -0.23597165942192078,
          -0.27998343110084534,
          0.24119773507118225,
          0.05287785455584526,
          -0.02243928238749504,
          0.3994848430156708,
          -0.12684161961078644,
          0.3466953933238983,
          -0.07328134030103683,
          -0.3040936589241028,
          -0.12173163890838623
        ],
        [
          -0.05018474534153938,
          0.37714821100234985,
          0.013041454367339611,
          0.4394495189189911,
          -0.0033206529915332794,
          0.04203925281763077,
          -0.2761473059654236,
          0.014035415835678577,
          0.24666239321231842,
          0.27371224761009216,
          -0.4612259566783905,
          -0.18695926666259766,
          -0.07837865501642227,
          0.04914266988635063,
          0.015209929086267948,
          -0.049018990248441696,
          -0.2122032791376114,
          0.14694766700267792,
          0.035580992698669434,
          -0.20974072813987732,
          0.047244951128959656,
          0.2251392900943756,
          0.1528148055076599,
          -0.16206395626068115,
          0.2836827039718628,
          -0.39191871881484985,
          -0.26778677105903625,
          0.3536107838153839,
          -0.142306387424469,
          0.038399264216423035,
          0.2694038152694702,
          0.26981887221336365
        ],
        [
          0.32096928358078003,
          -0.2990309000015259,
          0.03206247836351395,
          0.2660640776157379,
          -0.24609318375587463,
          0.28862816095352173,
          0.3797929584980011,
          -0.1079498752951622,
          -0.36550477147102356,
          0.2691376805305481,
          -0.0735136866569519,
          -0.21036221086978912,
          -0.36160948872566223,
          -0.26491567492485046,
          -0.193037748336792,
          -0.047698453068733215,
          -0.17646999657154083,
          -0.15561744570732117,
          0.13040155172348022,
          -0.1877811998128891,
          0.36667633056640625,
          -0.26294180750846863,
          -0.1326015740633011,
          0.0024981030728667974,
          0.1558447927236557,
          0.07766765356063843,
          0.3013012707233429,
          -0.06060382351279259,
          0.30806052684783936,
          -0.2027823030948639,
          -0.4494006931781769,
          0.10210026055574417
        ],
        [
          -0.12199670076370239,
          -0.2674161493778229,
          0.07624010741710663,
          0.4029739499092102,
          0.03537139296531677,
          -0.20134255290031433,
          -0.14477074146270752,
          0.07162825763225555,
          -0.07660892605781555,
          0.06352347880601883,
          0.06144997105002403,
          -0.19537614285945892,
          -0.3494899868965149,
          0.30383947491645813,
          -0.13108155131340027,
          0.21253301203250885,
          -0.18840301036834717,
          0.31324005126953125,
          -0.152201846241951,
          0.15967676043510437,
          0.1666760891675949,
          -0.20560957491397858,
          -0.35914742946624756,
          0.3856357932090759,
          -0.28164875507354736,
          -0.37471669912338257,
          -0.37975189089775085,
          -0.18379878997802734,
          0.18586963415145874,
          0.2102227360010147,
          -0.3208128809928894,
          -0.41826075315475464
        ]
      ],
      "biases": [
        -0.021433930844068527,
        0.017395472154021263,
        -0.023166436702013016,
        -0.0004139288794249296,
        -0.11025913804769516,
        0.015665870159864426,
        -0.03331814706325531,
        0.04682918265461922,
        -0.046224962919950485,
        0.029574623331427574,
        0.11252559721469879,
        0.001658493303693831,
        0.14483904838562012,
        -0.07003144919872284,
        0.11729560792446136,
        0.0720309391617775,
        -0.08225895464420319,
        -0.04343032091856003,
        0.1196722462773323,
        -0.07714252173900604,
        0.005206097848713398,
        -0.08216378092765808,
        0.019454805180430412,
        0.0010634250938892365,
        -0.003995390608906746,
        0.03809009864926338,
        -0.041920531541109085,
        -0.04439910128712654,
        -0.05379669368267059,
        -0.002213384723290801,
        0.07559230923652649,
        0.06632955372333527
      ],
      "activation": "relu"
    },
    {
      "name": "dense_1",
      "weights": [
        [
          -0.25059258937835693,
          -0.19523009657859802,
          -0.13233532011508942,
          0.15030843019485474,
          -0.26638999581336975,
          0.15192273259162903,
          -0.13843442499637604,
          -0.13668283820152283,
          0.16136445105075836,
          0.07959277182817459,
          -0.2836354374885559,
          -0.2266855090856552,
          0.26481789350509644,
          0.11204179376363754,
          0.20614728331565857,
          -0.08190283179283142
        ],
        [
          -0.1663481891155243,
          0.17983515560626984,
          0.06236778572201729,
          -0.09999708831310272,
          0.024341905489563942,
          -0.29329052567481995,
          0.10858479142189026,
          -0.09198202937841415,
          -0.09974616020917892,
          0.23985250294208527,
          0.11162292957305908,
          0.3866755962371826,
          -0.32717978954315186,
          0.04201416298747063,
          0.06132979318499565,
          -0.03545026108622551
        ],
        [
          -0.12921872735023499,
          0.1485825479030609,
          -0.25277966260910034,
          0.2686525583267212,
          -0.3494352400302887,
          -0.24350006878376007,
          -0.13580341637134552,
          0.09836187213659286,
          -0.2569907009601593,
          0.2789800763130188,
          0.22816964983940125,
          -0.15377230942249298,
          0.14708749949932098,
          0.2930810749530792,
          -0.23250478506088257,
          -0.315123975276947
        ],
        [
          -0.24493640661239624,
          0.14593283832073212,
          0.03899774327874184,
          0.17664851248264313,
          0.12201288342475891,
          0.03171135112643242,
          -0.14369156956672668,
          -0.032673027366399765,
          -0.2921658754348755,
          0.07996167242527008,
          -0.3917974829673767,
          0.06533413380384445,
          -0.027084479108452797,
          0.43751150369644165,
          -0.024921340867877007,
          0.2596789002418518
        ],
        [
          -0.08486493676900864,
          -0.21546386182308197,
          -0.10614555329084396,
          -0.019743384793400764,
          -0.1022467091679573,
          -0.12270336598157883,
          -0.16811968386173248,
          0.23501551151275635,
          -0.3527754545211792,
          -0.40781909227371216,
          0.053541235625743866,
          -0.11918417364358902,
          -0.13067670166492462,
          -0.2731001079082489,
          0.12767668068408966,
          -0.22091984748840332
        ],
        [
          -0.2118208110332489,
          0.2861471176147461,
          0.36181026697158813,
          0.20797818899154663,
          -0.25749021768569946,
          0.1302373856306076,
          -0.2113204300403595,
          -0.3625468313694,
          0.13435859978199005,
          0.042181748896837234,
          -0.1963236778974533,
          -0.1233615055680275,
          0.03027893602848053,
          -0.20972946286201477,
          0.22717800736427307,
          0.21574488282203674
        ],
        [
          -0.3516497015953064,
          0.035961274057626724,
          0.4334768056869507,
          -0.03074929304420948,
          0.18427176773548126,
          0.06610230356454849,
          0.1527193933725357,
          0.10545053333044052,
          -0.3003983199596405,
          -0.15661154687404633,
          0.3117882013320923,
          0.06665635108947754,
          -0.2545030415058136,
          0.0141378128901124,
          -0.16420941054821014,
          0.13630981743335724
        ],
        [
          -0.03537047654390335,
          0.06761840730905533,
          0.32499536871910095,
          -0.03975385054945946,
          -0.028156835585832596,
          0.2917201817035675,
          -0.06603426486253738,
          -0.30030518770217896,
          -0.11124680191278458,
          -0.16279058158397675,
          -0.19860658049583435,
          0.14794699847698212,
          -0.022139333188533783,
          0.26172634959220886,
          0.05661994218826294,
          -0.11041484028100967
        ],
        [
          0.08913912624120712,
          0.04564850404858589,
          0.26236793398857117,
          0.2024107277393341,
          -0.19762998819351196,
          -0.338431715965271,
          0.15727229416370392,
          -0.2091953158378601,
          -0.02467924728989601,
          -0.24772319197654724,
          -0.2596888840198517,
          0.011704993434250355,
          0.14038965106010437,
          0.03903920203447342,
          0.13587714731693268,
          -0.2625482678413391
        ],
        [
          0.006961660925298929,
          0.023527130484580994,
          -0.1147092953324318,
          -0.025833990424871445,
          0.17704609036445618,
          -0.3360123932361603,
          0.1883341372013092,
          -0.10322224348783493,
          0.29325759410858154,
          0.0517028272151947,
          -0.13621886074543,
          -0.22227652370929718,
          0.13286171853542328,
          0.36195141077041626,
          -0.2517082393169403,
          0.18715675175189972
        ],
        [
          0.12407823652029037,
          0.22552961111068726,
          0.34807300567626953,
          0.17751453816890717,
          -0.28644055128097534,
          0.36190804839134216,
          -0.37785589694976807,
          -0.3281758725643158,
          -0.06216222792863846,
          -0.2455120086669922,
          -0.18214227259159088,
          0.39887574315071106,
          -0.19522647559642792,
          -0.15377570688724518,
          0.481745183467865,
          0.32189425826072693
        ],
        [
          -0.009733020327985287,
          0.27429455518722534,
          -0.14360077679157257,
          -0.1089617908000946,
          0.02615879662334919,
          -0.21841274201869965,
          -0.2574760317802429,
          -0.02559477835893631,
          0.20873737335205078,
          0.1839437335729599,
          0.285266637802124,
          0.21982142329216003,
          -0.2361176460981369,
          0.063118115067482,
          -0.23802809417247772,
          0.07362937927246094
        ],
        [
          -0.1211317703127861,
          -0.11773102730512619,
          -0.01697232760488987,
          0.3491438925266266,
          0.3822709321975708,
          -0.17917633056640625,
          0.23777905106544495,
          -0.18721486628055573,
          0.2238156795501709,
          -0.011132389307022095,
          -0.21144331991672516,
          0.28040412068367004,
          0.2665049433708191,
          -0.30503740906715393,
          0.5096335411071777,
          0.11120469123125076
        ],
        [
          -0.12346259504556656,
          -0.1393798589706421,
          0.028988812118768692,
          -0.2394915521144867,
          -0.1418810486793518,
          0.15805140137672424,
          0.05232920125126839,
          0.2408820241689682,
          -0.1638757437467575,
          -0.009118129499256611,
          0.3922055661678314,
          -0.3486853539943695,
          0.14577479660511017,
          0.2901681363582611,
          -0.26399296522140503,
          0.4006439745426178
        ],
        [
          0.23974977433681488,
          -0.19490715861320496,
          -0.11945253610610962,
          0.03721759095788002,
          0.42920544743537903,
          0.07041852921247482,
          -0.2460038661956787,
          -0.20626311004161835,
          -0.25150346755981445,
          -0.06346303224563599,
          -0.3724234700202942,
          0.4986228346824646,
          0.019836746156215668,
          -0.40400034189224243,
          -0.08420608937740326,
          -0.2383047193288803
        ],
        [
          0.16012363135814667,
          -0.07821359485387802,
          -0.018237682059407234,
          0.4260888397693634,
          0.3843863904476166,
          0.3909820318222046,
          -0.342702180147171,
          -0.010593757033348083,
          0.007750549353659153,
          -0.20197071135044098,
          -0.1595572680234909,
          -0.10827264934778214,
          -0.34311702847480774,
          0.2187429517507553,
          0.11345548927783966,
          -0.15058796107769012
        ],
        [
          0.20896881818771362,
          0.25000864267349243,
          -0.1184420958161354,
          0.1754341572523117,
          0.19728989899158478,
          -0.047672826796770096,
          -0.0887305960059166,
          -0.14735449850559235,
          -0.14400292932987213,
          -0.2098800092935562,
          0.05442947894334793,
          -0.12741321325302124,
          -0.11137153953313828,
          0.3388112187385559,
          -0.18113744258880615,
          -0.16675227880477905
        ],
        [
          -0.06297823786735535,
          0.2393791675567627,
          0.2933027744293213,
          -0.18169473111629486,
          -0.1662067323923111,
          0.05804787948727608,
          -0.010912531055510044,
          0.2004825919866562,
          -0.176883265376091,
          -0.03100651502609253,
          -0.21652725338935852,
          0.06942525506019592,
          0.11803171038627625,
          0.06283382326364517,
          0.4468248784542084,
          0.11748567223548889
        ],
        [
          0.08904338628053665,
          -0.1500413417816162,
          0.13832619786262512,
          0.33144065737724304,
          -0.11461950838565826,
          -0.0817456841468811,
          -0.21586628258228302,
          -0.2057139277458191,
          -0.16096656024456024,
          0.08484350889921188,
          0.10167587548494339,
          0.3493819534778595,
          0.38933873176574707,
          -0.07702690362930298,
          -0.12747882306575775,
          -0.13228678703308105
        ],
        [
          0.26602643728256226,
          -0.29323819279670715,
          -0.23154643177986145,
          -0.2341265082359314,
          -0.11664289236068726,
          -0.28471365571022034,
          0.0815780758857727,
          0.2338065505027771,
          0.12406431883573532,
          0.2683789134025574,
          0.2532685697078705,
          0.2294570654630661,
          -0.27133482694625854,
          0.28239965438842773,
          -0.0073080286383628845,
          0.1349276900291443
        ],
        [
          -0.12959924340248108,
          0.10033030062913895,
          0.30656513571739197,
          0.021023642271757126,
          -0.2993846535682678,
          -0.11553981155157089,
          -0.1859579235315323,
          0.027487091720104218,
          -0.05035961791872978,
          -0.09436475485563278,
          -0.09024195373058319,
          0.13647907972335815,
          0.07400991767644882,
          -0.0029753977432847023,
          -0.22889575362205505,
          -0.17741553485393524
        ],
        [
          -0.40761837363243103,
          0.10361722111701965,
          -0.015330050140619278,
          -0.07656923681497574,
          -0.10100550949573517,
          -0.09226725995540619,
          -0.02657811902463436,
          0.0972689688205719,
          -0.33633553981781006,
          0.12282294034957886,
          0.027280256152153015,
          0.03965515270829201,
          0.20938265323638916,
          -0.3534807860851288,
          0.2741324305534363,
          -0.2580977976322174
        ],
        [
          -0.16542471945285797,
          -0.04954921081662178,
          0.22365352511405945,
          0.1575862020254135,
          0.1622355580329895,
          0.24005311727523804,
          -0.3501026928424835,
          -0.31265297532081604,
          -0.22555774450302124,
          -0.055142901837825775,
          -0.31048786640167236,
          -0.13627703487873077,
          0.27286237478256226,
          -0.24507011473178864,
          -0.02099660225212574,
          -0.26291218400001526
        ],
        [
          -0.2924502193927765,
          0.13081777095794678,
          -0.08509817719459534,
          0.2654171884059906,
          -0.06766378879547119,
          0.06806087493896484,
          -0.33452343940734863,
          0.130059614777565,
          0.25862911343574524,
          0.3339029550552368,
          -0.2703600525856018,
          -0.22876816987991333,
          0.05906516686081886,
          -0.2994205057621002,
          -0.13290470838546753,
          -0.2856249213218689
        ],
        [
          -0.06243376061320305,
          0.32515445351600647,
          -0.11802775412797928,
          0.2788713872432709,
          0.011995717883110046,
          -0.002829562872648239,
          0.22078050673007965,
          -0.41147109866142273,
          0.05200912803411484,
          0.1982111632823944,
          0.15303881466388702,
          -0.06825492531061172,
          -0.3308291435241699,
          0.0394439697265625,
          -0.09529176354408264,
          -0.14253747463226318
        ],
        [
          0.14414866268634796,
          -0.22381332516670227,
          -0.17973193526268005,
          -0.07095083594322205,
          0.17057637870311737,
          -0.11495499312877655,
          0.27785131335258484,
          -0.02321484312415123,
          0.2075340300798416,
          -0.1304532140493393,
          0.23084349930286407,
          0.32440823316574097,
          -0.1454807072877884,
          0.044592324644327164,
          0.05038457736372948,
          -0.192710280418396
        ],
        [
          -0.09892090409994125,
          -0.2848149836063385,
          0.35594791173934937,
          -0.17797090113162994,
          -0.32589343190193176,
          -0.15238820016384125,
          -0.313982218503952,
          0.25127172470092773,
          -0.05982523038983345,
          0.32292380928993225,
          -0.23265878856182098,
          0.15428391098976135,
          0.14606311917304993,
          0.26715534925460815,
          0.1757221668958664,
          0.28739169239997864
        ],
        [
          0.09105169773101807,
          0.03490490838885307,
          -0.2035733163356781,
          -0.2682149410247803,
          -0.06105494126677513,
          -0.14319440722465515,
          -0.17001262307167053,
          -0.10133621841669083,
          -0.2816850543022156,
          0.2635256350040436,
          -0.05091853067278862,
          0.3074854016304016,
          -0.006384446285665035,
          -0.23615874350070953,
          0.025916455313563347,
          0.24643109738826752
        ],
        [
          0.16233809292316437,
          0.2148175686597824,
          -0.16649805009365082,
          0.12035980075597763,
          -0.2897794842720032,
          0.037817731499671936,
          0.3055533766746521,
          -0.1560947597026825,
          -0.14276762306690216,
          0.3198874592781067,
          -0.31373563408851624,
          -0.13506317138671875,
          0.07942337542772293,
          -0.3410544991493225,
          -0.23001645505428314,
          -0.16287846863269806
        ],
        [
          -0.07928768545389175,
          0.14745685458183289,
          0.22986742854118347,
          0.12727129459381104,
          -0.029104936867952347,
          -0.13514061272144318,
          -0.1507442593574524,
          -0.17916922271251678,
          -0.24527795612812042,
          0.30973803997039795,
          -0.04632065072655678,
          -0.20780980587005615,
          -0.02884540520608425,
          -0.05484515428543091,
          0.3484916687011719,
          -0.2321566641330719
        ],
        [
          -0.30991455912590027,
          0.1485033929347992,
          0.13110797107219696,
          -0.06487598270177841,
          -0.2725142538547516,
          -0.044996194541454315,
          -0.360854834318161,
          0.06917399913072586,
          -0.31301984190940857,
          -0.262583464384079,
          -0.04886554926633835,
          0.2847929000854492,
          -0.1902027279138565,
          0.3006592094898224,
          0.2940329313278198,
          -0.23440659046173096
        ],
        [
          -0.3156190514564514,
          -0.3863140344619751,
          0.1011897400021553,
          0.006412213202565908,
          0.06694386899471283,
          0.17223632335662842,
          -0.07966161519289017,
          -0.05039079114794731,
          -0.17710089683532715,
          0.04547528922557831,
          -0.26756173372268677,
          0.17348216474056244,
          -0.12444652616977692,
          0.389822781085968,
          -0.10466641187667847,
          0.11956243962049484
        ]
      ],
      "biases": [
        -0.10745455324649811,
        -0.04287446290254593,
        0.09701552987098694,
        0.061917051672935486,
        0.06599558889865875,
        0.03772234544157982,
        -0.05635768920183182,
        0.03190150111913681,
        -0.010895369574427605,
        -0.01528698205947876,
        -0.03872748091816902,
        0.14985167980194092,
        -0.01898011565208435,
        2.5063545763259754e-06,
        0.17984415590763092,
        0.002090523252263665
      ],
      "activation": "relu"
    },
    {
      "name": "dense_2",
      "weights": [
        [
          0.3803975582122803
        ],
        [
          0.3509427309036255
        ],
        [
          -0.04736507683992386
        ],
        [
          -0.5069002509117126
        ],
        [
          -0.22244428098201752
        ],
        [
          -0.41796910762786865
        ],
        [
          0.3163870871067047
        ],
        [
          -0.06968538463115692
        ],
        [
          0.3302229046821594
        ],
        [
          0.5374688506126404
        ],
        [
          0.2115691602230072
        ],
        [
          -0.471163272857666
        ],
        [
          -0.3210344612598419
        ],
        [
          0.3325155973434448
        ],
        [
          -0.2443172186613083
        ],
        [
          0.31573477387428284
        ]
      ],
      "biases": [
        -0.08233965188264847
      ],
      "activation": "sigmoid"
    }
  ]
}